function [y1] = myNeuralNetworkFunction2(x1)
%MYNEURALNETWORKFUNCTION neural network simulation function.
%
% Auto-generated by MATLAB, 23-Mar-2021 16:01:51.
%
% [y1] = myNeuralNetworkFunction(x1) takes these arguments:
%   x = Qx7 matrix, input #1
% and returns:
%   y = Qx1 matrix, output #1
% where Q is the number of samples.

%#ok<*RPMT0>

% ===== NEURAL NETWORK CONSTANTS =====

% Input 1
x1_step1.xoffset = [0;0;1;0;0;1;1];
x1_step1.gain = [0.0253164556962025;0.0188679245283019;0.0253164556962025;0.0232558139534884;0.0158730158730159;0.0212765957446809;0.0256410256410256];
x1_step1.ymin = -1;

% Layer 1
b1 = [0.001445791056297107257;0.0061390526938983024097;0.0036615517391631021218;-0.00052820591140046010883;0.00011434443633626096117;0.0028413624383880273228;-0.0010925521512792839111;0.0025402898647501797116;-0.0063337766228541477614;0.0014283917522336442903;-0.0034180032769498824852;-0.0019229564069970402074;-0.0039285160183482395468;-0.0010266657017636343554;0.00086872550475858528567;0.0015784744025515433808;-0.00020505909513340422261;-0.001655068202524105983;-0.0028281266471261090265;-0.0042855316275020281791;-0.00051778771873142379056;0.0030455156146981751143;0.0042758310027017198268;6.7412909400207547466e-06;0.0025371483065694021633;0.00055264660509893824818;0.0042175521800507593043;0.0042102112595109918505;-0.0051807724626296630319;0.006449900998573514406;-0.0030740699113764469869;0.00012807842590364248861;-0.0042614554426843734639;-0.0012375918522876004288;0.00050898844107757673823;0.0035289226623833511685;-0.00030239359723024207072;0.0063711767551403886839;8.3263708903829253055e-05;-0.0050616086340746465136;0.00032272585572897839745;0.0040744153039589123613;0.0060787220659613639198;0.0036269285526707431208;0.00042438474696136947468;0.005395783736809141827;4.3253663004662321122e-05;0.0033196136184272958224;-0.004302164373725532974;-0.0039652097314297014494;-0.0064504741963407018213;0.0027645941407892725937;-0.004204001742476882672;0.00474969869591885651;0.0055394738841609576091;0.00012085848108838242944;-0.0039628164138881746825;-0.0031011577195747467954;-0.0062402725071310453236;-0.00056412876850404892158;-0.0014129049010163559092;-0.0026863932228302750925;0.005115681980225806301;-0.0024305739108249611348;-0.0043193316119380046475;-0.0052217819051592027912;0.0056333482363827352621;0.002437728537563704171;-0.0018113915828944328942;-0.0025678298707247503192;0.0024621797278099100993;-0.0059706756769744148347;0.0028366144806571589286;-0.0065341355135278399863;0.0051049273272115646902;-0.0066961646383931344717;1.369589300910224447e-05;0.005733650669359507783;-0.00013168382963960374049;0.0048789240525765964832;-0.0047390969866693390469;-0.00064948843543573785402;0.0064947969566459626961;-0.0063128552838177011408;0.00019407689792058313246;0.0012518879629258403315;0.0011018605931109753428;-0.004691534746247722279;0.0027726334989765831843;0.0044323095928659669851;0.0065439151129446796254;-0.0015689233678118498332;0.00058735714238452110553;-0.0040564509867927634607;0.002827288520616801689;-0.0027882723613768378018;-0.00083585201341469263486;0.0030264494778824333442;-0.00084844035182550048366;-0.00071974083537175632432];
IW1_1 = [-0.0032598489834913904097 0.0054582250883589136445 -0.0046826417487876763682 -0.0050720970912084282003 -0.013188332720179999497 -0.0098497265398739767411 -0.0065860985294764846573;-0.013046674883639891585 0.023684903261536278951 -0.020696826789308286898 -0.021853152056387568913 -0.056750458607667447763 -0.042478650593194756946 -0.028885444003201712904;-0.0081216418300947071374 0.013921823481574077327 -0.012008331386336742672 -0.012906778076194272073 -0.033552131524333471402 -0.025074365302870608302 -0.016850683549424587404;0.0011942331372987685482 -0.0019915197470831537754 0.0017069390580576723673 0.0018514263904916049633 0.0048141585871711379055 0.0035950734825231128906 0.0024017631641126678012;-0.00025859829630135310226 0.00043105777456105970336 -0.00036942533946233898365 -0.00040075381179908650675 -0.0010420592546495637161 -0.00077817086372857272557 -0.00051982519215397634225;-0.0063506514168606429185 0.010769135554156707493 -0.0092659334308475022751 -0.0099943620565507984566 -0.025984281603258291976 -0.019413014344253090582 -0.01301615099018510642;0.0024665419621596415024 -0.0041221856392789392454 0.0035349150581984161573 0.0038313286227479388842 0.0099622465511109460634 0.0074399466437436697144 0.0049727569998484055097;-0.0056903483619773062227 0.0096187432790795987514 -0.0082700513728401620073 -0.0089295669506550840594 -0.02321664635356085471 -0.017343804874610384975 -0.011620843459823410743;0.013496178667103562662 -0.024401557423265735763 0.021306335579093432092 0.022524788721313936113 0.058494142876381508001 0.043779833655334596254 0.029746747456620363514;-0.0032215306743752611558 0.0053918177449858517916 -0.0046252261818477873392 -0.0050106076220466713722 -0.013028485628638800109 -0.0097302364226326057417 -0.0065056130381576093846;0.007595605963867889214 -0.012986313029359654661 0.011194667416843807894 0.012042369993037187886 0.031306152946926318892 0.023394208569140317877 0.01571289883706026777;0.0043255027200669341966 -0.0072675731074742623908 0.0062398554775280751228 0.0067510225111671240059 0.017553381695238890609 0.013110980234625395011 0.0087733054600042763294;0.008664853737948592996 -0.014971838826085024504 0.012937339512385475152 0.01386958161287758437 0.03605183660921086608 0.026948228560597541764 0.018140348852225391535;0.0023183895977769240077 -0.0038731278618027312546 0.0033210505975107087497 0.0035999874729069855119 0.0093607347896481566535 0.0069906589364617443758 0.0046720772788443271431;-0.0019627763900223211407 0.0032764666341692913129 -0.002808928878221418797 -0.0030456566923595710349 -0.0079193967885641050608 -0.0059141345068293897994 -0.0039519291157811709675;-0.003556806142272367962 0.0059608622067725009624 -0.0051149296115630326839 -0.0055386492778374228629 -0.014401356613514919996 -0.010755936526624633454 -0.0071934588865778335137;0.00046374589373256310757 -0.00077304542513385757045 0.00066252021662772150445 0.0007186958378789305062 0.0018687880684864674984 0.0013955420070672114492 0.00093224119359332116401;0.0037282729192568207603 -0.0062509780215627150715 0.0053644193459748334626 0.0058079494935893583724 0.01510153011077167845 0.011279007887530806409 0.0075440027513289393407;0.0063213385796747475695 -0.010718790749095392228 0.009222487048808769225 0.0099476940664048017771 0.025862971336392367311 0.019322350585885838398 0.012955196706858218211;0.009418082447865570514 -0.016354152038737374691 0.014147935852654230579 0.015143519942618276219 0.039360137790153640336 0.029425188533760804344 0.019828319096018447165;0.001170613667339931831 -0.0019522903043096640277 0.0016733472855515675766 0.0018149412499697953338 0.0047192853652359015651 0.0035242327181588509362 0.0023544784848579382135;-0.0067999431722657217858 0.011547776772100816489 -0.009939242106438031174 -0.010715496707439094853 -0.027858665121835241019 -0.020814208661566826336 -0.013959972564473096049;-0.0093871973181704846528 0.016324402916718695755 -0.014126745123702804524 -0.015113765213762949541 -0.039282313536835089529 -0.029368126155748588979 -0.019795869828661515066;-1.5246343105437049536e-05 2.5412755141116243236e-05 -2.177915937276125413e-05 -2.3626498311603874548e-05 -6.1434536112139485941e-05 -4.587700857184112105e-05 -3.0646014446754940401e-05;-0.0056831750534489904048 0.0096069588039683576769 -0.0082599853223925493589 -0.0089185929972001812965 -0.023188109986617352204 -0.017322503038553569571 -0.011606658655697222812;-0.0012494011941151382701 0.0020837413066248076411 -0.0017860268666716864767 -0.0019371388457574804671 -0.0050370281236520736412 -0.0037615167571292788817 -0.0025130175899335232409;-0.009268823185258479383 0.016095459059108502275 -0.013924109058285305887 -0.014903758202799304716 -0.038737233568788095872 -0.028959487462035402028 -0.019514594261136847947;-0.0092485607028273634361 0.016070629162978480875 -0.013904592838896522033 -0.01487979948227647134 -0.038674765718761945632 -0.028913269431939930126 -0.019486051067554004818;0.011225411860184979912 -0.019869605003636874041 0.017264161876592066386 0.018368580278126912797 0.047727091210346142547 0.035699155830284268198 0.02415158199594027652;-0.013564673806621197968 0.024962865943750765785 -0.021878639347456124709 -0.023008520517355798146 -0.059733714946215578367 -0.044728393423390466754 -0.030497066685635836059;0.0068557690740596857401 -0.011662076333681317339 0.010041436946363800631 0.01081971979570944993 0.028129235733219282861 0.021017296980653851074 0.01410120500291123756;-0.00028966368403325685717 0.00048282967599018304129 -0.00041379209661446849896 -0.00044888662118052174554 -0.0011672174769754932976 -0.00087163359458099221033 -0.00058225582721467073269;0.009395484662947647253 -0.016239995026342209788 0.014034794747843132648 0.01504457889096718487 0.039104755177268454847 0.029230713837339158262 0.019678400605378874172;0.0027922635857385975054 -0.0046707765116217559928 0.0040061882974604676524 0.0043407963010317490715 0.011286900054029640889 0.0084294203009069017946 0.005635215061174782096;-0.0011508982243345637544 0.001918973174312694303 -0.0016447028887365709379 -0.0017840103414031346484 -0.0046388654641603141796 -0.0034641559753476928139 -0.0023142269795251250303;-0.0078710773522864870694 0.013385192105661955497 -0.01152458480479384359 -0.012419117982497410169 -0.032286853912500204644 -0.024123652249821783689 -0.016184407694791305699;0.00068381577664776275506 -0.0011400267223680591797 0.0009770594402523766122 0.0010598630521351599856 0.002755905628809396813 0.0020580151526881332487 0.0013748175197564138725;-0.013412389603802973154 0.024654235837963649897 -0.021602194242161105314 -0.022725248410143589206 -0.05900097122824567164 -0.044178117916979751933 -0.030114952629319412941;-0.00018831215766852406552 0.00031388563251655651363 -0.00026900364405124590084 -0.00029181991434726361253 -0.00075880477649739445402 -0.00056664630875201795271 -0.00037852144874521480517;0.011019626000590095061 -0.019377709691904939499 0.016812287471166326852 0.017924403287969122717 0.046577272298450253518 0.034832967276411087865 0.023533953920240800045;-0.00072975841605867541526 0.0012167073674657074168 -0.0010427961293312667471 -0.001131143346049963026 -0.0029412503092234292684 -0.0021964284529364538033 -0.0014673049378988115704;-0.0089766685930933627635 0.015533953173992132851 -0.013427766187985679808 -0.014388460194296804825 -0.037399596798703457767 -0.027956845598326621888 -0.018825262426233557722;-0.012935694506154487432 0.023443345483935118523 -0.020477884222816794546 -0.021632933387390002045 -0.056180858080404454113 -0.042050261340586168879 -0.028584383495707767903;-0.0080451530495311406738 0.013790158464804500721 -0.011894624483921902025 -0.012784719956776447944 -0.03323491524170540945 -0.024837263026972960372 -0.016691195191306153894;-0.00095957299379959871966 0.001600020112230391171 -0.001371348550513283495 -0.001487484634119923526 -0.0038678237173286459695 -0.0028883697682701926952 -0.0019295889415941141869;-0.011614149741504053298 0.020743166422174962038 -0.018059050383621225166 -0.019161318355861361312 -0.049779753005210376771 -0.037243568883245502243 -0.025242407575666772623;-9.7824564101188534577e-05 0.00016305611111902591922 -0.00013974076108860483225 -0.00015159369827062290628 -0.00039418147371251491956 -0.0002943595602698869133 -0.00019663273437062520716;-0.0073845194774952828756 0.012607150715016840134 -0.010864208316609341373 -0.011692395733941672586 -0.0303968419470347119 -0.022713812560057014545 -0.015251217948054807474;0.0094561288183873468821 -0.016416303668044193026 0.014200986105082743366 0.015201471566623363935 0.039510779054414281453 0.029537633692437021554 0.019903114228939259439;0.0087570246818010205603 -0.015102863999368467546 0.013045191400062942227 0.013993639482661003604 0.036374786502897202278 0.027188315209855550697 0.018294837395418154374;0.013483363432766551707 -0.0250214303905686615 0.021967665291034190606 0.023045556924199638721 0.059823364298320788612 0.044805010627435269688 0.030598576453599313218;-0.0061805891211616391032 0.010477160417022519934 -0.0090139876120479776184 -0.0097237022868185106483 -0.025280715174702570597 -0.018887194822722077475 -0.012662664058556224664;0.0092931080574948886353 -0.016003608619681908981 0.013818966681279012607 0.014830893180227644815 0.038550884605352636614 0.02881383929773180877 0.01938269475435580938;-0.010358853852717843716 0.018176580925199078281 -0.015761793553556190106 -0.016815498040033776544 -0.043698866102521716215 -0.032678134256049810868 -0.022068114492871888921;-0.011911843886713480503 0.021298862599935866613 -0.018548082977595366228 -0.019673630143382837832 -0.051108342548975581321 -0.038238983250837597916 -0.025923127050648444442;-0.00027331182311148000249 0.00045562726430988583371 -0.00039049157386122169749 -0.00042359263247679801879 -0.0011014438397281809973 -0.00082251950143604141488 -0.00054946260147802821003;0.0087561676467326730877 -0.015090435807382862957 0.013032345603711284823 0.01398313129190076852 0.03634771228656422104 0.027167558840869934084 0.018278094749049011991;0.0069136886120248495016 -0.011766673170167029835 0.010132693777296881282 0.010916202331929199254 0.028379929246655676706 0.021204901736224437275 0.014228639234477829037;0.013299884356669011698 -0.024044147071099929852 0.020993038782466728887 0.022194025351839428289 0.057636958036857671717 0.043137869999963593393 0.029309761823740544673;0.0012752092461781041818 -0.0021271533817319326388 0.0018233102649698128793 0.0019774605946208229611 0.0051418680991733604554 0.0038398263974406122816 0.0025654325272574758296;0.0031869632357651028753 -0.0053330746539973711631 0.0045746592552264623774 0.0049561045785535898234 0.012886782437311186666 0.0096243635947673884801 0.0064345945015244418452;0.0060113765151701059261 -0.010176581843691731577 0.0087526820168393193455 0.009446025542021681265 0.024559076261426726617 0.018347395690970262627 0.012297214829832037175;-0.011115721454108157609 0.019599029243006757528 -0.017014428385056040716 -0.018124784850735306541 -0.047096177493849013251 -0.035223571160337315 -0.023810909209062036673;0.0054513037641606403721 -0.0091981971426603192921 0.0079052261838235878683 0.0085407118813861579443 0.022205965115922602499 0.016587988968048181238 0.011110157986330153682;0.0094877078643514217715 -0.016486179150447331787 0.014264344765159513856 0.015264848896934805206 0.039675094207109122546 0.029661195950947863431 0.01999017007753263464;0.011394963131263436892 -0.019968245236394427389 0.017311992018414722877 0.01847751110808237493 0.048015141184276015351 0.035905214516105884992 0.024241255351955762892;-0.012105158781040938065 0.021662439467559954642 -0.018868574227818776801 -0.0200086605782463893 -0.051977010709827402291 -0.038889951300552373648 -0.026368944146100383591;-0.0054680720760972760866 0.0092247003405420621713 -0.0079276538574017361982 -0.0085654953120561753976 -0.022270430484513825675 -0.016636059792589058537 -0.011141890653485597013;0.0040752845228460695889 -0.0068453940217198805396 0.0058770226865475852507 0.0063590138231627820267 0.016534160764760202217 0.012349616015252664475 0.008263371086614807598;0.0057514478043899242704 -0.0097234423319599427166 0.0083603539354790961519 0.0090266362158245971176 0.023468985380514905542 0.017532382801795864946 0.011747564631726426648;-0.005521387381782432921 0.0093183934598551811795 -0.0080089131787563303672 -0.0086521369147543238792 -0.022495625420145565904 -0.016804461984666729801 -0.011255649964380862876;0.012696182365295216252 -0.023038627133050139373 0.02012893484090295948 0.021255868476113447957 0.055202602870265335411 0.041319094815106219287 0.028094216526075518198;-0.0063428212596180521057 0.010748993760494408856 -0.0092472611531290577203 -0.0099763238481979203687 -0.025937512014192629084 -0.019377744379914102479 -0.012990732734593907899;0.013709557484245632128 -0.025304975223823297087 0.022193085122062701509 0.023318995688174269654 0.06053532761355412406 0.045332433054593994359 0.030927018321682691465;-0.011083495151634004464 0.019564474030606470584 -0.016988598067689299198 -0.018090815449702674078 -0.047007425057297949622 -0.035158222164365746099 -0.023772239334834136676;0.013989104580812639772 -0.025961090783899014311 0.022795775397421367409 0.02391499699602145021 0.062073733668643049644 0.046491600106299782458 0.031751379373853867716;-3.0975394175977930531e-05 5.1630239242222114679e-05 -4.4247582936886653364e-05 -4.8000776435378442219e-05 -0.00012481403298726870678 -9.320630135246913057e-05 -6.2261912648108716961e-05;-0.01227810743300456961 0.022074224264756872604 -0.0192469228414273337 -0.0203811189716472628 -0.052940314282280388769 -0.039615700164262496186 -0.02688613096293097221;0.00029780855926111267275 -0.0004964273008374089349 0.00042545035977051032672 0.00046152681987817010135 0.0012000839476544967674 0.00089617828035044172497 0.000598657837832579625;-0.010627065866601052846 0.018678468682446311422 -0.016203328758791997466 -0.01727756867161354265 -0.044898006307562195183 -0.033576474583305072896 -0.02268266349975766108;0.010361215844949757739 -0.01811752708259561917 0.0156985753704232886 0.016766468721365647421 0.043573041807217126331 0.032581065238959552866 0.021986818451436955513;0.0014680429255313606676 -0.0024491153829514886349 0.0020993420125866306576 0.0022767353621195832343 0.0059200497789847362357 0.0044209684559844801555 0.0029537785155812385125;-0.013671727328735587201 0.025125076163836752852 -0.022014956884206814125 -0.023161497779255919849 -0.060130927738302294983 -0.045024411510458849095 -0.030690770729188084076;0.013312646710856881199 -0.024416430348280102058 0.021383373893156351619 0.022509700205652224958 0.058444304128917524965 0.043758600018584815905 0.029815922327902998068;-0.00043886317639984845276 0.00073167799047911129436 -0.00062709078473149263821 -0.00068022709863202511851 -0.0017687561388148303077 -0.0013208477140474140718 -0.00088237454295434381707;-0.0028263737654558957965 0.0047232589300024059586 -0.0040502978181589871856 -0.0043900201275073854126 -0.011414963452520868192 -0.008524842091373914868 -0.0056978087353431851672;-0.002487999602902938364 0.0041569543664426496926 -0.0035645140245080266482 -0.0038637514023019538072 -0.010046569668824022192 -0.0075028677410786583785 -0.0050145264022657416031;0.010244251570705529067 -0.017946064316015104129 0.015556164229165453036 0.016604648490902242097 0.043151994590790436479 0.032267740186282957426 0.021783601052311817731;-0.0062032727481626534841 0.010503951406396054916 -0.0090347621544802324267 -0.009749687514064440258 -0.025348477521128641443 -0.018937264646723468708 -0.012693225342997238939;-0.00972440852680823975 0.016924382173374958455 -0.014648868642150597238 -0.015668464754615536727 -0.040723004670254248083 -0.030445974948303651531 -0.020525897544484774521;-0.0137135185231647104 0.025353367429923289594 -0.022243065763354476216 -0.023360428199408360406 -0.060641330064879046813 -0.045413727935641245992 -0.030992205622711332252;0.0035364201575204504309 -0.0059238973444832058665 0.0050826577811102814641 0.0055045765238007820022 0.014312807263326109489 0.010689667222917245346 0.007148407681233421955;-0.0013277425988948402154 0.0022147203774191765238 -0.001898356342339518844 -0.0020588712174797979375 -0.0053535564835693128308 -0.0039979071662503209983 -0.0026710313709233752741;0.0089470957679285301883 -0.015458124024061953988 0.013357463563883661961 0.014320453194373063133 0.037223418856731652071 0.02782397512115925009 0.018729558908473224049;-0.0063180846991638603405 0.010716687734902271764 -0.0092213438969248086308 -0.0099454149875321563867 -0.02585698513137552057 -0.019318041006307334201 -0.012953187503956834284;0.0062345452090454200542 -0.010566051438933783332 0.0090899696281861730451 0.0098064579066796143947 0.025495901138000369446 0.019047840148845387315 0.012769704663340897613;0.0018884703593250384227 -0.003152507385863537008 0.0027026742278077552604 0.0029304220544165517949 0.0076197591131522048741 0.0056903717239523664284 0.0038024280703035442941;-0.0067537554937781079864 0.011478329517195554402 -0.0098812141384154450474 -0.010650187056709529629 -0.027688720776463875833 -0.020687662957912932027 -0.01387741133389280325;0.0019168167354920487809 -0.0032000610397172972975 0.0027434887656203198365 0.0029746026699520229132 0.0077346350467098869477 0.0057761713594130185273 0.0038598225167911863996;0.0016266542135773389213 -0.0027141697684277456964 0.0023266304102317531856 0.0025230898795995785645 0.0065606231508503476402 0.0048993565222784328517 0.0032735202619850853507];

% Layer 2
b2 = -0.07218320713549661316;
LW2_1 = [-0.020522837567588988333 -0.088028155477450006905 -0.050867672813428618794 0.0066832613362202602028 -0.0022173217097875125813 -0.039936065867605542723 0.015710286587024377414 -0.036068800813242596348 0.086031570117518427199 -0.019557230776609889344 0.048463807839312027237 0.027228692857902820484 0.057566184681851526039 0.014552658735089093328 -0.011783365069966585115 -0.022485956484250207293 0.0028474253139778508796 0.02337794140711843896 0.039867002625786039649 0.0613643286743325439 0.0072280778506749005993 -0.041581550544676340597 -0.062429315128090259734 -0.00036864305863572050664 -0.036113994076993907734 -0.0073901985186797768124 -0.061379829210995502653 -0.061850676529404909065 0.074136259197833426215 -0.094553434417767839859 0.043389450171337544393 -0.0016527715993585683461 0.057872785253373547343 0.018194991699788533313 -0.0055709891812796659069 -0.043099214523513590391 0.0043638229698411993771 -0.094009618784206216979 -0.0011284419996320310068 0.070061979073222979686 -0.0050719424175202565061 -0.058748790602453478116 -0.087165931248904149342 -0.050829389225872476099 -0.0058625074552787030668 -0.079349402432625656956 -0.00067125001534856906706 -0.047073201739928099974 0.061190525690220286259 0.056080138476035698569 0.098268211729259091758 -0.039536418036030994416 0.054884609116198718182 -0.068632613815388404666 -0.079997563125915993609 -0.003730472302472250673 0.055490066970294640858 0.043932670441441203091 0.085958793121556908989 0.0084144964063268615218 0.019157682791483488655 0.037932140037826904411 -0.071752674612494696249 0.033700585977843457164 0.061861803381072930086 0.067828643979081670867 -0.080468377210698757707 -0.033434045136071594007 0.026783513967875444833 0.036255655060108110677 -0.033985594863179632852 0.08777856552319186767 -0.039194266277441443258 0.095921787221721205308 -0.072454734932759876087 0.098348693564041050896 -0.00018882775267010682308 -0.082984486448746383469 0.002603215857791467934 -0.069731521327159137758 0.066319489565735301184 0.0090656084724184127221 -0.093931596902420269601 0.092968937899365042266 -0.0047264114798906044917 -0.015526822706379918987 -0.014912778201980503301 0.067548533985793149381 -0.038224445265518061654 -0.063021599169829412013 -0.096646609723351595278 0.021489009701559525639 -0.0082554088034946758456 0.057506530591400289998 -0.040232537104912223513 0.039253221821945877279 0.011883168880854205057 -0.042436459098969370185 0.01216584156066097093 0.0098721214976813641967];

% Output 1
y1_step1.ymin = -1;
y1_step1.gain = 0.00540540540540541;
y1_step1.xoffset = 57;

% ===== SIMULATION ========

% Dimensions
Q = size(x1,1); % samples

% Input 1
x1 = x1';
xp1 = mapminmax_apply(x1,x1_step1);

% Layer 1
a1 = tansig_apply(repmat(b1,1,Q) + IW1_1*xp1);

% Layer 2
a2 = repmat(b2,1,Q) + LW2_1*a1;

% Output 1
y1 = mapminmax_reverse(a2,y1_step1);
y1 = y1';
end

% ===== MODULE FUNCTIONS ========

% Map Minimum and Maximum Input Processing Function
function y = mapminmax_apply(x,settings)
y = bsxfun(@minus,x,settings.xoffset);
y = bsxfun(@times,y,settings.gain);
y = bsxfun(@plus,y,settings.ymin);
end

% Sigmoid Symmetric Transfer Function
function a = tansig_apply(n,~)
a = 2 ./ (1 + exp(-2*n)) - 1;
end

% Map Minimum and Maximum Output Reverse-Processing Function
function x = mapminmax_reverse(y,settings)
x = bsxfun(@minus,y,settings.ymin);
x = bsxfun(@rdivide,x,settings.gain);
x = bsxfun(@plus,x,settings.xoffset);
end
